0.24007983818,-0.518838070588,0.000248951098967;-0.0569509672415,-0.3298651752,0.131555016611;0.642114968414,-0.521657214476,0.0689188779035|-2.39097000128,-2.4219667207,-4.44276564826;-0.607368887513,-10.631109986,0.882074134065;0.218784544585,41.3839763039,-33.2352598972;-1.88128515577,-6.4208761931,-1.76074001015;-0.332028814248,47.7863003767,0.196328662558;-1.78011218444,-1.88823738707,-5.36774510839;-1.60316956845,-3.00689317808,-1.00820094076;-19.7387754937,1.45058791833,6.6122485134;0.496126547014,-58.0344232439,13.2136702985;3.07373170654,50.7760606037,-34.4570287995;-33.7373786793,9.08361439623,11.2543757684;-2.67776481829,-3.05008274693,-3.38403325247;-26.231855941,-2.02274446888,9.28017624145;-2.36085486666,-3.71546582778,-0.695344751774;1.84883483713,-3.64903932783,-0.114202890755;10.8388350719,-43.2374328778,6.84198007507|0.692559889523,-2.161933121,0.419750419606,-0.789158471091,-3.10896357616,-0.542751998314,-0.811680969871,0.561062488293,-0.966096979803,-2.41033801866,-0.0448533349407,-1.2432655462,-1.66915939707,-1.04811632249,-1.81324017523,1.19051971382;-0.600462968303,-2.69342801366,-1.93967737856,0.0119119057659,-5.4752076469,-0.817210940331,-1.83927275136,4.08998261434,-8.70758309256,-8.1597705669,6.66901509431,2.01748602383,0.573853391847,-0.26599461749,-3.13083439798,0.211701548896;-6.27013661911,-1.43441163128,-3.57000953899,-2.01311952634,23.2084027722,5.02566917095,-0.0324596899483,-10.6899651356,-21.2581883325,-25.7305106297,-10.0385371619,-1.77712899748,-16.1301788965,-2.98031412433,2.35875311789,-22.1498392938;1.4257697981,0.706972895899,-59.3774548116,-13.4272023159,20.5129031578,5.75488448228,1.00935687106,-1.10844606461,-32.2633799814,-15.7201518484,2.15042780764,2.72352609545,-1.6125462348,1.04338749776,2.3552392609,-1.22299265627;-1.33117148775,-1.96106398592,41.8172141634,9.48598357615,-28.7671982779,-8.54787971996,-1.59131658857,0.493440490375,22.5668056235,-6.65509798746,0.139935836719,-1.03685573577,-0.297743089048,-1.84384562478,-1.57054489792,0.383779664059;-1.31108171673,-1.62390878552,7.75609810088,1.93740699882,-8.91440134266,-3.56240648455,-1.42829585729,0.946790245172,2.54957478303,-1.52466638343,-0.416253398694,-0.935836734104,-1.52242150529,-1.03582880555,-2.62033179081,-2.8539103075;-1.46466974007,2.43016594768,-17.9116236623,-3.7637515641,-1.43653441826,-1.08342759108,0.680707484497,1.29937371707,-1.23342545282,5.45183751811,-7.23600099452,-2.03055785314,3.13918973517,1.63177177836,0.681389601707,-3.8801948436;0.42930272007,-5.83420997256,-18.3409339399,-4.87159792458,16.705776559,4.92283785649,0.467925178785,-1.73360663945,-6.297642638,-1.01047342332,0.634175546026,-0.383156697054,0.0134059415101,-0.40925789764,-1.25380066119,-1.31416302004;0.453464697618,-1.18004341638,-1.2926188187,-0.456590584542,-4.33763938466,-1.63404987204,-0.497357566578,-0.418728899936,-1.54196884004,-1.44711790816,0.086134121518,-0.868097146596,-0.758526094858,-1.6031146101,-0.313534260372,0.618106403858;1.30360455613,-1.62832892495,-1.52709769137,-0.0830304219366,-3.15430181664,-0.241112648802,-0.839147275996,0.0178183853345,-4.73688305396,-4.43697335402,1.27406961845,0.0759560055105,2.59383444997,-0.758557410315,-1.21595108167,5.66597521391;-0.634490078228,2.78000091957,-11.5837585291,-2.64690345857,-2.07167720123,-1.82122515119,0.00345103190529,0.0040609284708,-2.61609713785,2.61854385167,0.492121377916,0.469914232612,1.17463695452,0.222539329529,1.2184561449,0.581860591978;0.722409047185,-0.292118703537,-2.12935670363,-1.29103871655,-0.121927176813,-0.861792989402,-1.99980291584,-3.79626134536,-4.41218336904,-7.27924218443,7.37037963916,1.51610033625,-5.82184508753,-2.81671993456,-0.775338445094,2.45662601355;-0.930223685865,-0.769146633522,-1.10520953082,-1.51898727861,5.74842353625,1.80869852469,-0.68418342249,-8.69757878221,-10.5405788298,-17.1173581877,-18.1580476638,-3.70878398849,-5.06524250572,-1.78331982871,0.0847391373399,-0.452673606456;-0.471323791299,0.391886460602,-0.974601460477,0.200689135477,-3.61966624542,-0.189195461092,-0.563878021915,-0.425637129027,-0.226163214383,-0.927277947869,-0.376364763097,-0.773758594787,0.122385745554,-0.775900182718,-0.886820270629,-0.711925416787;0.202115642272,-0.791935408516,1.16171295443,0.752907289459,-2.44900537144,-0.0554331029699,-1.63975028562,0.0178677340559,-3.04490394091,-0.443000076696,1.12229498813,-0.441395239036,-1.30636220239,-1.19980377613,-2.08953400416,0.895530176504;1.65213763555,-1.43333941112,-2.81298398331,-1.57587433934,-5.26844897232,-1.93258933272,-0.123488091224,-0.0655093817211,-6.06194292551,-5.84929466588,0.27553916803,0.211528245355,-1.02284171065,-1.67104613128,-1.28271830053,3.91691317006;0.176921744811,-0.957799095819,-3.68172691915,-0.7607779687,-0.986497162141,-0.998967702348,-0.103421972304,-1.11161730631,-2.90137385643,-1.3268342134,-2.89882505154,-1.30759843977,-1.45110992129,-0.394190314969,-0.95208918154,-0.314950503028;0.318994999233,4.4181751121,2.57759473696,0.897551344315,-2.83964219799,-1.59869835405,-0.347398847158,-1.07568454753,3.20295065955,2.19909369744,0.622937274841,1.03981958252,0.421849589358,0.394716236556,0.0919879930085,1.18370607104;-0.666194789221,-1.20664238236,-0.659553563373,0.129996843324,-2.38287563315,-0.081412720515,-1.29231796254,-1.2049501622,-1.27303032484,-0.596842177388,-1.25534525628,-1.61315222663,-0.583264411104,-0.583365126421,-1.1918968931,-1.55453023172;1.80832091482,0.885422908964,11.1562223126,1.30705813979,-2.03843716011,-1.50190303603,-0.00357565688901,-2.02144484934,-6.75266898813,-5.21587269556,-0.896275269922,-0.141685889964,0.61501545656,0.887685667938,1.18559896905,4.86759653165;0.616030789316,-1.41876669945,-9.03874120667,-3.09289220841,4.25308147973,1.44590864524,-2.27211647738,-9.41825809012,-14.3960447248,-5.86525614954,-36.8206341127,-9.47716466652,-6.82771914514,-3.23538402954,-1.08507857032,4.64613142896;0.180893330082,0.543836518978,-2.5994800087,-0.530852770282,-0.394828786107,-1.40268608905,-0.0335224800154,-1.37157450489,-2.87013853669,-2.389657496,-2.98614494008,-1.49409655561,-0.78223716468,0.577443341732,-0.256375778192,-0.741370241972;-0.873901667938,0.205084777922,-1.24837069653,0.100515997812,-2.03309393275,-1.21557140719,0.187524020667,-0.147516292748,0.691972308316,-1.96786635993,1.0840379387,0.0747385904406,1.23151651669,0.651806653616,0.398479407015,-2.79579014528|-1.33370692444,-6.36592776727,-16.2885298873,20.1145232924,16.0106742559,7.27980259615,11.5295599012,-8.60448478522,-1.65997867477,-1.30798345526,7.09243931561,0.423574494376,-10.8907117991,-1.13154724141,-0.247172539196,-1.48332711079,1.47893547411,-2.18099863068,-0.855580694242,2.54193745602,20.5127637497,5.36186064214,3.20382369117;-0.832113092835,-1.86156763291,-8.61510543632,14.0950492111,17.8536768981,1.18452834069,3.02518403603,0.644995507219,-1.00771030668,3.11738033151,-3.3236299171,-5.28088952236,-7.76392638014,-2.20436861355,-1.2891741939,-1.79593062534,2.69528808079,-2.68369218947,0.226934183641,-2.1065833626,16.4274852057,3.41723816321,-2.34125300631;0.29100579567,0.944188324484,-4.16905743073,8.64702418341,10.1703568636,0.92948176027,0.992536869494,1.48801521506,-0.334831553076,1.51373712529,-1.95998066741,-4.82604443667,-3.62724534237,-1.24894286809,2.28181163274,-2.32413499302,0.803122044837,1.43159718899,1.60566730257,-1.86771128056,9.52739193221,3.49673746515,-1.82612908276